{"ens_weights": [0.1704397031375191, 0.1619497918152306, 0.2304035203073046, 0.1878607033294445, 0.24934628141050105], "coefs": [[-0.3704015248161111, -0.1545890127214243, -0.8265095199495238, -0.13974396072020806, 0.9470073580467337, -0.060139453904322356, -0.6416686991270223, 0.6825620304084463, 0.07347339464622263], [-0.46623621347721755, 0.3982923167555361, -0.8692402812355825, -0.1712625987793246, 0.9126237642326889, -0.0663791997148727, -0.6733724642505611, 0.6118725481832686, 0.0918570507368874], [0.5338794299301168, 0.4992040127776327, -0.8609308639148591, -0.20249003562094176, 0.7816896597372415, -0.10944591552024241, -0.7400892092941095, 0.5678038850158462, 0.06649144174056715], [0.062153312351487314, 0.3142353452859615, -0.8939790692941106, -0.18833911710916593, 0.8882402633758809, -0.08279099768713596, -0.6882601383156631, 0.5769732129753351, 0.10700396367065998], [0.20341023645157696, 0.6281929842186988, -0.9109270433761115, -0.2082759322904146, 0.8185667246575269, -0.12842209148295283, -0.7462980723566158, 0.5740839128302968, 0.09448888499365145]], "intercepts": [-0.01924612262291886, -0.1278791157824029, -0.2817312397984863, -0.19407792302779053, -0.300636251009475]}