{"ens_weights": [0.3318919888282451, 0.08268823729817906, 0.19891430481167244, 0.07076500631178442, 0.31574046275012063], "coefs": [[-0.33537650978500244, -0.1764852363789394, -0.8293869721395172, -0.13613080739256364, 0.9079335800208267, -0.09700268789524871, -0.6571131274441665, 0.6965316158283208, 0.17493336640107593], [0.41464842585419165, 0.27942434276598277, -0.8965211209112509, -0.20651579317113505, 0.8477469146420319, -0.15699457041456277, -0.7151881845643937, 0.6168927555384962, 0.18305891667541202], [0.6259134666103024, 0.5537210977566378, -0.8416064669510297, -0.18827052483638487, 0.6864005216093847, -0.1566638028782616, -0.7347831646034015, 0.5479704973035694, 0.17168710695294578], [-0.36896583682534134, 0.8099432682866379, -0.8937172312666115, -0.21344399733952696, 0.7690126953426123, -0.1716817314342482, -0.7489320613851026, 0.5824652595557729, 0.16228608903119882], [0.16756943719469472, 0.5710978382962227, -0.8890851796289804, -0.19768915882836818, 0.7825985524167914, -0.15848316648182992, -0.7410581573616689, 0.5953655378029495, 0.17725080580200875]], "intercepts": [-0.057584199511383376, -0.25528999944071307, -0.3434764701785166, -0.33814853326333083, -0.3041757860402562]}