{"ens_weights": [0.03631779475308026, 0.5402372909212783, 0.34423137519631003, 0.06835495343708685, 0.010858585692247586], "coefs": [[0.5437004515028077, 0.3346489263120098, -0.8846716311826093, -0.21665397972995742, 0.8137827584475013, -0.19648500923051865, -0.7316599157846663, 0.6406020725499901, 0.20798204707885837], [0.3599546076044508, 0.35828779952383516, -0.885322835191178, -0.20679293578618616, 0.8107353567474659, -0.1833796194421108, -0.7276941624245276, 0.6296933676367333, 0.21879851577919654], [-0.4129688110319367, 0.37049997811125734, -0.8490673535450686, -0.17008353672169485, 0.851509258378782, -0.14291159524046143, -0.6870073448469268, 0.662277308199497, 0.21386468324814617], [0.09002573806118534, 0.03694349856667718, -0.8276489873266706, -0.1678872049348905, 0.8402703900722186, -0.15032584550587952, -0.7165314871637968, 0.7115915304802543, 0.2062180283011617], [0.11840344939103933, 0.27836107872925236, -0.870301370346275, -0.18867600351353261, 0.8304760652940725, -0.15905823519361695, -0.7046154258192937, 0.6351723524470999, 0.2237902119505174]], "intercepts": [-0.28754285246568384, -0.28138041422962434, -0.16764163188827902, -0.15526580218953479, -0.22850130856595818]}